Entity,Embedding_1,Embedding_2,Embedding_3,Embedding_4,Embedding_5,Embedding_6,Embedding_7,Embedding_8,Embedding_9,Embedding_10,Embedding_11,Embedding_12,Embedding_13,Embedding_14,Embedding_15,Embedding_16,Embedding_17,Embedding_18,Embedding_19,Embedding_20,Embedding_21,Embedding_22,Embedding_23,Embedding_24,Embedding_25,Embedding_26,Embedding_27,Embedding_28,Embedding_29,Embedding_30,Embedding_31,Embedding_32,Embedding_33,Embedding_34,Embedding_35,Embedding_36,Embedding_37,Embedding_38,Embedding_39,Embedding_40,Embedding_41,Embedding_42,Embedding_43,Embedding_44,Embedding_45,Embedding_46,Embedding_47,Embedding_48,Embedding_49,Embedding_50
http://www.ncbi.nlm.nih.gov/gene/85021,0.012587974,0.0048583336,0.010012903,0.0022384033,-0.012180378,-0.0069198185,-0.0027204687,0.0032951047,0.0024826445,-0.005817804,0.006036444,0.004273099,-0.0043877354,0.008123641,-0.0011681464,-0.0021892348,-0.006422444,0.0020446186,0.0023324338,-0.0026072238,0.0049904156,0.0022056315,0.0050398475,-0.0070274547,-0.0009808182,0.00028295798,0.0009897825,0.007754228,-0.0076529146,-0.007361537,0.007329494,-0.0018591781,0.0015113796,-0.0017337659,0.007798597,-0.0006791399,0.0003763318,-0.0034747426,-0.0041902405,-0.00518534,-0.0054179425,-0.0046325354,-0.008508305,0.0038234727,0.0003229913,0.002514049,-0.007783128,-0.002134299,0.008176709,0.0036637762
http://www.ncbi.nlm.nih.gov/gene/728464,0.013078569,0.0035535798,0.01244127,0.004106163,-0.013066845,-0.011075803,-2.3792629e-05,0.007781871,0.00260097,-0.00573846,0.0070462497,0.0055236956,-0.005097964,0.006776312,-0.001996869,-0.0038207688,-0.00730036,0.0031458908,0.004791246,-0.0012240515,0.0063389055,0.0038099152,0.002921334,-0.008200565,0.00019822021,0.0004642409,0.0022903876,0.005201482,-0.01167172,-0.0073519805,0.0083219465,-0.0023812708,0.0004087047,-0.00021151216,0.011157109,0.0022360608,0.003878943,-0.003966618,-0.008437605,-0.007623506,-0.007731298,-0.0041626277,-0.00912162,0.006388668,-0.00061224424,0.0016925135,-0.008440729,-0.0009305486,0.010320045,0.005305628
http://purl.obolibrary.org/obo/MONDO_0000728,0.034427438,0.012311901,0.032271888,0.014728668,-0.037851907,-0.022341989,-0.0032143046,0.015365128,0.002455296,-0.021035733,0.019029953,0.016677972,-0.010808218,0.016659034,0.0012614564,-0.008474412,-0.018327966,0.006369325,0.006136447,-0.0052955793,0.011186528,0.0029882672,0.012291308,-0.023210132,-0.0011832737,0.00059702026,0.008592318,0.015686639,-0.029499507,-0.020160768,0.020004988,-0.005995796,0.0045065368,-0.0040247706,0.028924527,-0.0004920639,0.00539675,-0.0067649237,-0.017271865,-0.019106561,-0.015686085,-0.0064332853,-0.02606378,0.010181663,-0.00019936296,0.0034844766,-0.02479535,-0.00575179,0.02705171,0.016187811
http://www.ncbi.nlm.nih.gov/gene/111240474,0.0065382444,0.0016352336,0.006433979,0.0036363807,-0.007465732,-0.0063924496,-0.00021418132,0.002963188,0.0013738531,-0.0043620993,0.0023464176,0.002874205,-0.0036631667,0.002357535,-0.000250582,-0.00036765143,-0.0021334272,0.0016727374,0.0005620931,-0.0012396303,0.0014518839,0.00023465205,0.0018014348,-0.006106596,0.0005510987,-0.002324463,0.0010731735,0.0032387618,-0.0035232403,-0.0036519594,0.0041180314,-0.00060922524,0.00026375026,-0.00041102248,0.006770133,-0.0002445653,0.00028992185,-0.002618219,-0.0051841224,-0.0010640131,-0.0012460664,-0.00016593357,-0.005747124,0.0013177098,-0.00095948286,-0.00070098304,-0.006361049,-0.0010856704,0.0046710116,0.0024002292
http://www.ncbi.nlm.nih.gov/gene/8395,0.004870237,0.0017239333,0.0037863061,0.00019140056,-0.0068464195,-0.0034307693,0.0012884862,0.002314988,0.0019073882,-0.0046790396,0.0012905187,0.0038088968,-0.00039782113,0.0043474715,-0.0005331775,-0.002076941,-0.0029931543,0.0030508908,0.0019106215,-0.0015155985,7.5625256e-05,0.0023610024,0.0034151943,-0.0054758196,-0.0011323732,-8.847938e-06,0.0033163137,0.0007295053,-0.0052505187,-0.0027929922,0.00044813845,-0.0001939095,0.0021461754,-0.0024536243,0.005594436,-0.0018760964,0.000802079,-0.0007475426,-0.0037107202,-0.0017884395,-0.0015960368,-0.0033471119,-0.002765895,0.0030677859,0.0010198139,0.0011747073,-0.005598654,0.0005289783,0.0049743326,0.0010065722
http://www.ncbi.nlm.nih.gov/gene/85459,0.009614619,0.0032224138,0.0089394655,0.001166411,-0.009344179,-0.00691448,-0.0009265808,0.0047259964,0.002443241,-0.003174313,0.0038870238,0.0046996907,-0.0031204375,0.0046875556,-0.0020492682,-0.00061116245,-0.0029070075,0.001788808,0.0017685381,-0.00037848306,0.001846957,0.00043103343,0.0018864773,-0.0068496256,0.0011407805,-0.001652482,0.0032205603,0.0049531013,-0.0055218698,-0.0062807663,0.0037949272,0.00015584951,-0.00018393545,-0.0013461699,0.0062648766,0.0007969737,0.0012085474,-0.00328555,-0.0035101771,-0.0039726063,-0.005300378,-0.002362178,-0.005627052,0.0010248414,-0.0007129886,0.0014615235,-0.006143213,-0.0011971525,0.007411846,0.0040250705
http://purl.obolibrary.org/obo/MONDO_0016467,0.07213138,0.024242006,0.06953137,0.026172725,-0.07820504,-0.049985126,-0.009664958,0.03439331,0.0069065834,-0.04047637,0.04000635,0.03227165,-0.027173152,0.038430937,6.394201e-05,-0.020020505,-0.0333465,0.014765967,0.016396558,-0.013407221,0.026682118,0.0084959,0.028064612,-0.049881116,0.0012035221,-0.0022723097,0.019859316,0.034122866,-0.06376699,-0.038322985,0.038083497,-0.00895181,0.010530457,-0.006506706,0.061188094,0.0020183835,0.012958704,-0.014516316,-0.03555929,-0.034461565,-0.034711666,-0.01500309,-0.057887025,0.023832869,-0.0019378361,0.0036675779,-0.051448856,-0.00984853,0.054051857,0.036397997
http://www.ncbi.nlm.nih.gov/gene/523,0.02093173,0.008429119,0.02273449,0.009094446,-0.024029452,-0.013204469,-0.0039674807,0.009666946,0.0015070637,-0.013861547,0.012608707,0.011034863,-0.008852948,0.012859288,-0.0008289501,-0.0071735373,-0.01171753,0.005364687,0.0057438994,-0.0042157094,0.007700288,0.002403854,0.009392882,-0.015612392,0.0007970168,0.0011533977,0.0067011747,0.012069915,-0.01922736,-0.013988208,0.012072024,-0.0028375527,0.002292501,-0.0018174662,0.019698387,-0.0013963021,0.004660811,-0.004781272,-0.009503458,-0.010017357,-0.0097273765,-0.0040264064,-0.01648637,0.005564347,0.0007717236,0.00048269573,-0.01444222,-0.003115292,0.014164053,0.012395076
http://www.ncbi.nlm.nih.gov/gene/257641,0.011274386,0.0025613033,0.01015852,0.0035326318,-0.011163776,-0.0049816566,-0.000846901,0.0036719772,0.0020544748,-0.0050905705,0.003640782,0.0022376315,-0.0039701913,0.0065247007,0.00037810332,-0.000794747,-0.006059742,0.0029113342,0.0020728204,-0.0029557876,0.0039713336,0.002815416,0.0032991716,-0.0066136625,-0.0009766392,-0.00018229455,0.0010033069,0.005124207,-0.0063065547,-0.005142226,0.0049445555,0.00022838172,0.00055594393,-0.0015738935,0.008589014,-0.00021792327,0.0009923899,-0.0017067819,-0.004379502,-0.0065175,-0.0039373115,-0.0018115033,-0.009149548,0.0024641247,-0.0008163657,-0.0005110994,-0.007874468,-0.00022647403,0.0079510985,0.0036290295
http://purl.obolibrary.org/obo/MONDO_0008073,0.07679999,0.02431558,0.07192927,0.02945774,-0.08421532,-0.052580703,-0.008060957,0.033354327,0.00805518,-0.043825846,0.045342226,0.03160187,-0.028448384,0.03879035,-0.00017829603,-0.023564745,-0.03604712,0.015742596,0.014859613,-0.012841357,0.025625965,0.00967201,0.026839992,-0.055158317,0.0019861865,-0.0035287435,0.020884667,0.03557176,-0.063941866,-0.043402046,0.041619554,-0.011230177,0.011060029,-0.006934866,0.066644624,0.0018548989,0.011817747,-0.01387291,-0.03824763,-0.03546363,-0.037054285,-0.017516533,-0.059423063,0.025597945,-0.0022215066,0.0024589563,-0.05360861,-0.009118811,0.055154443,0.04095016
http://www.ncbi.nlm.nih.gov/gene/114112,-0.0066458904,0.00047175397,-0.004076267,-0.0036210208,0.0056510717,0.0031072337,0.0020574303,-0.0014108616,-0.0011604605,0.0010335345,-0.004827195,-0.0011754074,6.0123377e-05,-0.0007411585,-0.00027357304,0.0022410988,0.0039234115,-0.00041550037,-0.0005424479,0.0023802225,-0.0014839361,0.0007544305,-0.0004499043,0.0025026316,-0.0015403354,-0.00082053454,-0.0028546364,-0.000471226,0.0026362755,0.00069752854,-0.0048086853,0.0010468455,0.00069141126,-0.0011251273,-0.005839826,-0.00059716677,0.0005784024,0.002065352,0.0012558644,0.0012066439,0.0012920349,2.3650773e-05,0.0022499817,-0.00054865674,0.0018192051,-0.00034801956,0.001527123,0.0019336113,-0.0017292241,-0.0037821312
http://www.ncbi.nlm.nih.gov/gene/3675,0.046485208,0.014722245,0.04376231,0.016644781,-0.05105654,-0.030622946,-0.004808001,0.021773854,0.0036192522,-0.025005678,0.025192987,0.018722743,-0.018065684,0.025621785,0.00080457865,-0.014649953,-0.02242451,0.010885184,0.010870773,-0.009525832,0.01751043,0.0041840193,0.018236034,-0.032418486,0.0022972126,-0.003518268,0.01150008,0.023077331,-0.040088393,-0.024035482,0.02613304,-0.0042300504,0.0055228528,-0.004049436,0.040068038,0.0026568824,0.006565511,-0.011514583,-0.0244713,-0.021293277,-0.021958686,-0.00870332,-0.037961867,0.014335549,0.00011093387,0.0033520157,-0.03398099,-0.00740627,0.036762156,0.02485118
http://www.ncbi.nlm.nih.gov/gene/411,0.05378417,0.018490436,0.049058538,0.021401605,-0.060176253,-0.037990205,-0.0064523974,0.026305396,0.003390881,-0.029845418,0.030666111,0.021548115,-0.021346496,0.027979998,-0.00080447615,-0.015018613,-0.027398042,0.011072649,0.013846418,-0.0075470163,0.019543828,0.0051843924,0.018146109,-0.038787927,0.0022583085,-0.0016068842,0.015536121,0.026407674,-0.04510936,-0.027968474,0.025829397,-0.0055075805,0.0048255925,-0.0046630586,0.046553675,-0.00010890113,0.0083496105,-0.009976216,-0.02661702,-0.026481073,-0.028235193,-0.013861467,-0.04123124,0.018955883,-0.000551869,0.0029618235,-0.03985495,-0.008201008,0.04011131,0.025088364
http://www.ncbi.nlm.nih.gov/gene/100527949,0.014384164,0.0033810432,0.011128741,0.0059689973,-0.01285744,-0.00947703,0.0006585316,0.0044782334,0.0009463705,-0.0059485496,0.008436652,0.0067319963,-0.0057088053,0.005200761,0.0016908117,-0.0023909076,-0.0045176693,0.0037729952,0.0033377178,-0.00074334734,0.0057156514,0.0021375685,0.004051959,-0.0072436733,0.0007219573,-0.00014742663,0.0013665942,0.0067932047,-0.012585997,-0.0063446728,0.0071915872,0.0001810218,0.003145522,-0.0023859798,0.009766775,-0.0011500802,0.00072866224,-0.003124287,-0.0074180583,-0.0045085503,-0.0048248135,-0.0038553998,-0.010253366,0.0036992664,0.0015762972,0.001816241,-0.007484322,-0.0014037974,0.007463014,0.005483456
http://purl.obolibrary.org/obo/MONDO_0011715,0.059431504,0.020298056,0.05621548,0.024580926,-0.06466551,-0.0426169,-0.008634886,0.02706616,0.0061076125,-0.031449925,0.032952726,0.027629968,-0.023697432,0.028872186,0.00044077565,-0.016829299,-0.03031062,0.011737375,0.012754958,-0.010088709,0.021365687,0.007435198,0.021521047,-0.04235191,0.0015626245,0.00019106014,0.015009005,0.027969321,-0.051944897,-0.0342147,0.0336512,-0.0048197787,0.0055746827,-0.0048930594,0.050076514,-4.672024e-05,0.010142464,-0.011008977,-0.032355215,-0.0305835,-0.029281002,-0.0111546535,-0.045391187,0.020164656,-0.0024281077,0.0023170738,-0.040675007,-0.0063830195,0.043482464,0.032235596
http://www.ncbi.nlm.nih.gov/gene/284297,0.01231037,0.0039188163,0.012016607,0.0054937964,-0.01258973,-0.007501834,-0.0022150956,0.0050435066,0.00012314947,-0.0045835357,0.005250887,0.003929489,-0.0037149107,0.0051279725,-0.0011583141,-0.0050535714,-0.0038065203,0.004496239,0.00053424574,-0.00046918524,0.0020433818,-0.00016130826,0.0033118185,-0.0077201244,-0.00093084096,0.0012905179,0.0018294126,0.0074292207,-0.008118302,-0.005635127,0.00390652,-0.0030047419,-0.00048514406,-0.0006659168,0.0100295935,-0.0008735798,0.00028305745,-0.0026017174,-0.0072825192,-0.0066481717,-0.0042965948,-0.0027508128,-0.010617903,0.0035432745,-0.0018330168,0.0021179686,-0.0073606987,-0.0014847812,0.006748312,0.0035547111
http://www.ncbi.nlm.nih.gov/gene/84226,-0.0014472461,0.0016523463,-0.0005069652,-0.0010128495,0.0017588541,0.0012506972,0.0012365736,0.0006930104,0.0013476067,-0.00041265498,-0.0011668517,0.0014050582,0.0017304756,-0.00019001277,0.0003433253,0.00030493602,-0.0014172759,0.0009066976,0.0010578863,-0.0016377666,-0.00023245087,0.00081667484,0.00028725085,0.00046644,0.0001282997,0.00014271591,-0.0014043585,-0.0015186939,-0.00063973735,0.00068685436,-0.0008857373,-0.00049457257,-0.0001783848,0.0013390164,-0.0019508568,-0.0011646871,-0.0009036253,-0.0009414784,0.000102238264,0.0011783877,-0.0011571692,0.0013570467,0.0005234518,-0.0012979623,-0.00032129473,0.0006106027,-0.0012871119,-0.0005806833,0.0018079807,-0.0019273225
https://www.mirbase.org/mature/MIMAT0019002,0.06466261,0.02372253,0.052678786,0.00615735,-0.0873804,-0.04838287,-0.01879491,0.020826874,-0.01582499,-0.043526966,0.026125915,0.017984062,-0.028360108,0.026884748,-0.00720538,-0.01672918,-0.025184967,0.024079729,0.014303416,-0.025787137,0.019108258,0.01647644,0.018435879,-0.04953439,-0.026852615,-0.015666837,0.013523218,0.027220868,-0.041950434,-0.033053644,0.03426922,-0.014974763,0.021515816,-0.008840923,0.05286025,0.008442287,0.018225726,-0.0058005536,-0.030238412,-0.016819375,-0.043937713,-0.039301258,-0.061202627,0.023048442,0.0065503046,0.013409342,-0.055453476,-0.013799192,0.059865497,0.022198644
http://purl.obolibrary.org/obo/MONDO_0004607,0.058130644,0.018819436,0.053801645,0.021310912,-0.062229834,-0.038289562,-0.0077226628,0.02737045,0.0056855776,-0.031085227,0.03349776,0.024879104,-0.022847155,0.028161753,-0.001399697,-0.01693586,-0.027750934,0.011832192,0.011738932,-0.0078007244,0.022650417,0.0074364897,0.02299534,-0.04030332,0.0021062542,0.00039503086,0.015432704,0.027477983,-0.050398387,-0.031850014,0.028699676,-0.0054405825,0.008894589,-0.0072477767,0.04976968,0.00088377506,0.008250852,-0.012187316,-0.031280756,-0.026404932,-0.029981945,-0.012252704,-0.046004,0.017844794,-0.0012311122,0.004372531,-0.041096814,-0.00773754,0.04221599,0.0273091
http://www.ncbi.nlm.nih.gov/gene/4082,0.03740013,0.011184926,0.03335915,0.015484439,-0.03825807,-0.023819977,-0.0021240553,0.014872941,0.0021901082,-0.02203349,0.020629711,0.014361179,-0.011823354,0.01895949,-0.001460655,-0.010545502,-0.018398382,0.008215081,0.0074007967,-0.004816298,0.011044574,0.0054355124,0.011813902,-0.025457265,-0.00012954678,-0.0024573538,0.010177063,0.01583601,-0.030105012,-0.021028062,0.018147366,-0.006027757,0.0046463897,-0.002706085,0.030411974,6.558665e-05,0.0048376387,-0.0073731244,-0.017700257,-0.017588848,-0.020116271,-0.0076920246,-0.026709711,0.013115987,-0.00025321255,0.0029196509,-0.028032498,-0.0051014046,0.02744877,0.018220942
http://purl.obolibrary.org/obo/MONDO_0020366,0.03399498,0.011243677,0.031313952,0.014806468,-0.03844672,-0.024272509,-0.0047554756,0.017073333,0.004742951,-0.018536704,0.021871768,0.015948525,-0.012496454,0.017078135,-0.0021559002,-0.008950252,-0.016965467,0.0070578693,0.009030416,-0.005896274,0.014534316,0.003983684,0.013769499,-0.023096217,-0.0002495342,-0.002568267,0.007303836,0.016683714,-0.030616956,-0.019347724,0.016612122,-0.0060186647,0.005571906,-0.0045713047,0.02838491,-0.0011236981,0.007637539,-0.0066990084,-0.018230872,-0.016464496,-0.01618837,-0.008612573,-0.028730873,0.010891028,-0.0005678092,0.0020369994,-0.025922092,-0.0040145055,0.02455735,0.019463398
http://purl.obolibrary.org/obo/MONDO_0012812,0.06569972,0.019865707,0.05696348,0.022683727,-0.06701881,-0.041626524,-0.0044955374,0.028545601,0.00802452,-0.03503702,0.037680887,0.027879916,-0.022145247,0.032847367,-0.00088564365,-0.017700233,-0.03199805,0.012830981,0.014907766,-0.009963214,0.021935582,0.005880083,0.022033699,-0.044472963,0.0030870596,-0.0012815866,0.019206073,0.031022616,-0.05661174,-0.03629634,0.034665115,-0.007512504,0.009382809,-0.007795916,0.055351533,0.00021051992,0.009976181,-0.013328887,-0.031140424,-0.031908408,-0.02991615,-0.013952498,-0.047419038,0.019022286,-0.0013040066,0.000599933,-0.043698378,-0.007335537,0.047057707,0.034580607
http://www.ncbi.nlm.nih.gov/gene/246181,0.0071014385,0.0028137534,0.007842132,0.0034254468,-0.010727499,-0.005817898,-0.001079308,0.0024224836,-0.00038590556,-0.0062448345,0.0058709476,0.0048525333,-0.0012235837,0.004364038,-0.0019695302,-0.0032775148,-0.0037448704,0.0031022958,0.001845134,-0.00090929825,0.003805857,0.0019047809,0.0017664438,-0.0072749807,0.0018470156,-0.0017488978,0.0034787764,0.0044514807,-0.009063386,-0.0035256783,0.002688695,-0.00030646686,0.00050211576,-0.00034640566,0.0051195845,-0.0010004949,0.0032630395,-0.00028688216,-0.0062274397,-0.0032687918,-0.002184517,-0.0008877684,-0.0053279386,0.0045383126,-0.0012080963,0.0022319653,-0.0040838826,-0.0031200924,0.0052406467,0.0043353806
http://www.ncbi.nlm.nih.gov/gene/55253,0.0047837575,0.0002766704,0.0016901325,0.0015476382,-0.0043296665,-0.0041804197,-0.002293368,-3.513921e-05,-0.00030690688,-0.0012575237,0.0035879805,0.0032509824,-0.00083617575,0.001951365,-0.002040896,-0.0025783426,-0.002434063,0.0015067683,-0.0010125143,-0.0022789584,-0.00044185453,0.0023436907,0.001143208,-0.0029108324,0.00045650892,0.0010720901,0.00042986328,-1.7939819e-06,-0.0042997114,-0.0037547515,0.0036209389,0.00030181248,0.00020413502,-0.0018621346,0.0036015138,-0.001829623,-0.00026811,-0.0004347428,-0.003816889,0.00022685228,-0.0036050202,1.4319183e-05,-0.0042449096,0.0017198983,-0.00070275046,0.0009430974,-0.0021962067,-0.001794594,0.003670833,0.0006919842
http://www.ncbi.nlm.nih.gov/gene/646960,0.073240064,0.024944112,0.07020193,0.030038374,-0.08193325,-0.052101597,-0.0070287655,0.032754846,0.007878388,-0.04256729,0.04128901,0.033773955,-0.030001635,0.038057763,0.0001129866,-0.019969955,-0.036459193,0.01587779,0.014999898,-0.010601654,0.027864479,0.007973926,0.02946134,-0.055814944,0.0028039615,-0.004069489,0.017603619,0.03834401,-0.06649379,-0.03986936,0.040998038,-0.009694505,0.008764301,-0.0087365685,0.062133145,0.003054344,0.014446213,-0.015789777,-0.040645584,-0.036475245,-0.03881577,-0.016530963,-0.0594623,0.026139388,0.00052081776,0.0036273405,-0.052860808,-0.0111170355,0.055868037,0.03575786
http://www.ncbi.nlm.nih.gov/gene/163782,0.0012180855,0.0024597459,0.0030124395,0.00012845574,-0.0035738875,-0.002450143,-0.00065442023,0.0009217735,0.0011547726,-0.0032336572,-0.00041864038,0.0029890132,-0.0021701183,0.0031826769,-0.001921672,-0.00054263935,-0.002844907,0.0005036642,0.001860928,0.00040658715,0.0013525632,-0.0012444676,0.00053672027,4.119714e-05,0.0018462855,0.00046655952,0.00031090475,0.0029351227,-0.0006296629,-0.0034721375,0.002667545,0.00039909346,0.0015093581,-0.0008393462,0.0030310082,0.0009882229,-0.0012565211,-0.0011031971,-0.0033289883,-0.00070208416,-0.0027923281,0.0004632497,-0.0027776053,0.0003488353,0.0013882918,0.001383137,-0.002192864,0.00021533832,0.002929463,4.5181223e-05
http://www.ncbi.nlm.nih.gov/gene/727851,0.0056857727,0.0012066003,0.00748479,0.00064826943,-0.0073830876,-0.0053297365,-0.0006078656,0.0050130994,0.00069759414,-0.002804937,0.0028132529,0.0036491957,-0.0018465699,0.0049969726,-0.0013596606,-0.0013854924,-0.0021594798,-0.00024520082,0.0022971476,0.00057644234,0.00069098413,0.0014923116,0.0041950084,-0.0031662697,-0.0013899606,-0.0009050713,-0.00013218624,0.0036756909,-0.005365894,-0.004181566,0.003132747,-0.0005586931,-0.0001411076,-0.0011850906,0.0038089305,-0.00074744644,-0.000111026224,-0.0027733385,-0.001582511,-0.0020638397,-0.0047491794,-0.0008802431,-0.0060465937,0.0017713361,-0.0013850083,0.0022551639,-0.0051278067,0.00036544396,0.006750365,0.0016673644
http://www.ncbi.nlm.nih.gov/gene/574032,0.05446854,0.018058026,0.05153668,0.019003045,-0.059820473,-0.038684107,-0.0077734063,0.02466048,0.0032977862,-0.032166183,0.030356344,0.025716897,-0.020977369,0.028188016,-0.002111247,-0.01719422,-0.0273581,0.01066806,0.012170147,-0.0103412485,0.021332584,0.0059081586,0.019841285,-0.04161299,0.0015633359,-0.00081030576,0.016263459,0.028202368,-0.04962515,-0.031737152,0.027938155,-0.0068071564,0.008319297,-0.0043551615,0.04614901,0.00102151,0.008027835,-0.010553123,-0.029332643,-0.027706794,-0.026179776,-0.012865727,-0.042034753,0.019958807,-0.0008138063,0.0010758919,-0.03981746,-0.0069273477,0.040143747,0.02851698
http://www.ncbi.nlm.nih.gov/gene/3809,0.0054176687,0.0013412425,0.0049627097,0.001627662,-0.0051411367,-0.0020938914,-0.0022082103,0.0037212337,0.00017893832,-0.0028409215,0.0046587037,0.0035389154,-0.0035193395,0.0021937988,-0.0014896397,-0.0005270094,-0.0013960232,0.0030140185,-0.00019926643,-0.0013916206,0.0017893651,0.0011528695,0.0013598321,-0.003526939,0.0013221303,-0.00022868316,0.00022741445,0.0024434875,-0.0052304287,-0.0046149706,0.0007998947,0.00022179578,0.0014523861,-0.0014163279,0.0043253396,0.0014562525,0.00046351322,-0.002553378,-0.0033628552,-0.00030877083,-0.0015768574,-0.0015224481,-0.004750885,0.0026853643,0.0010320718,0.0010204555,-0.0031361224,-0.0012040175,0.004400365,0.0011071255
http://www.ncbi.nlm.nih.gov/gene/390433,0.0070965574,0.003452795,0.007209775,0.004493733,-0.0071555204,-0.0040865648,-0.0002944303,0.003913921,0.0016053927,-0.0027151958,0.0033894998,0.0041281926,-0.0025903876,0.0054653254,0.0015977477,-0.0033743803,-0.004098566,0.0030668417,0.0023770332,-0.0017515492,0.0008985749,0.00035151019,0.0035759415,-0.00702472,0.00043651814,-0.0013205523,0.0023470873,0.003942513,-0.007291488,-0.003227833,0.0021345424,-0.00040186275,0.0018739925,-0.0023142872,0.00768976,-0.001230126,0.0013377519,-0.0021946293,-0.0043342444,-0.004785241,-0.004292981,-0.0020948267,-0.005380963,0.0013064814,0.0017637161,4.776806e-05,-0.0035684314,-0.0014002519,0.007239077,0.0049230256
https://www.mirbase.org/mature/MIMAT0019891,0.057049464,0.027767895,0.03894816,-0.023072442,-0.09167166,-0.04660825,-0.041212227,0.007909222,-0.047000155,-0.037651718,-0.0034703086,0.0021381888,-0.026980717,0.015137534,-0.018200349,-0.0026076306,-0.0048993635,0.034790892,0.00801638,-0.0477727,0.0048611388,0.025573531,0.0021369013,-0.050167575,-0.059215173,-0.024921814,-0.0038050232,0.0099037895,-0.012083278,-0.017712653,0.027347814,-0.017534358,0.034659956,-0.009228061,0.03556858,0.029461557,0.03053679,-0.0061754226,-0.017327154,-0.0018189498,-0.0491364,-0.06857416,-0.06136961,0.026182285,0.01128982,0.022036688,-0.059820164,-0.018294757,0.06387229,-0.0035456677
http://www.ncbi.nlm.nih.gov/gene/80149,0.006685421,0.0016219323,0.0068720416,0.0020164412,-0.0074990112,-0.0055198325,-0.0017809344,0.003235225,0.0010366754,-0.002889361,0.0032599615,0.001449602,-0.0025018267,0.004782017,0.0015261172,-0.0013530961,-0.0025497787,0.0023077514,0.00075435376,-0.0030709815,0.0035864972,0.0014393093,0.0035027855,-0.0039214585,-0.00045277056,-0.00024125144,0.0034330648,0.0032766669,-0.004862033,-0.0025624332,0.0033259036,-0.002251026,0.0023303698,0.0007403544,0.005923349,0.0010318485,0.0025313117,0.00013142444,-0.0022016938,-0.0029605913,-0.0049451725,-0.0017628034,-0.006961047,0.003575481,0.0017608722,0.0010102012,-0.0076296465,-0.0017735793,0.006753069,0.004848497
http://purl.obolibrary.org/obo/MONDO_0013203,0.099023215,0.032304328,0.091125645,0.03407829,-0.10057818,-0.06772138,-0.011383371,0.043917708,0.011314542,-0.05000494,0.05188655,0.04223842,-0.035261348,0.04886853,-0.002807724,-0.02676314,-0.048804373,0.017544918,0.01929662,-0.012202207,0.031810317,0.008363757,0.03673941,-0.067569144,0.0049168896,-0.0036119497,0.026324367,0.045238495,-0.082933776,-0.050351076,0.049325395,-0.0069218734,0.011810423,-0.008246128,0.08436277,-0.0008179042,0.013663148,-0.021966325,-0.049728263,-0.050329026,-0.046426173,-0.015908105,-0.07131137,0.031827323,-0.0031806952,0.001990442,-0.06620729,-0.011391912,0.06823505,0.04811189
https://www.mirbase.org/hairpin/MI0003630,0.09288161,0.030597096,0.089830436,0.033738844,-0.10352759,-0.06550291,-0.011106449,0.04481074,0.008019689,-0.05322987,0.05538383,0.043197766,-0.0356237,0.04668036,-0.0007587192,-0.025197076,-0.046834916,0.021255672,0.020313334,-0.013401414,0.03163419,0.012615923,0.03321465,-0.06878082,0.0026499035,-0.004611792,0.022573922,0.045967728,-0.08094658,-0.050936673,0.04810535,-0.0107922945,0.011750618,-0.009968828,0.08121662,0.0015312525,0.016716944,-0.021593183,-0.048474807,-0.04399523,-0.04746085,-0.020016976,-0.07208222,0.03230649,-0.0007573446,0.004498009,-0.065504596,-0.014544235,0.0666095,0.04669798
http://www.ncbi.nlm.nih.gov/gene/60674,0.05488147,0.018606743,0.053671658,0.021516051,-0.05737336,-0.03844925,-0.0070023136,0.026679305,0.0039289896,-0.029937742,0.032254122,0.022666035,-0.020279191,0.028015386,-0.0014602176,-0.01403149,-0.025517682,0.012819239,0.010668131,-0.0074990476,0.017593564,0.005480228,0.020738145,-0.039281406,0.0031411077,-0.0018037674,0.014573801,0.027231885,-0.046363324,-0.029619211,0.02903737,-0.0047212876,0.0072398284,-0.0047825156,0.04453626,-0.0011472811,0.0070853066,-0.01116788,-0.029504377,-0.027995344,-0.028139327,-0.009858985,-0.043760784,0.018368313,0.00021097813,0.0023554172,-0.036555976,-0.0054429667,0.041414652,0.026516322
http://www.ncbi.nlm.nih.gov/gene/283298,0.005881402,-0.00030692204,0.0035050402,0.0011032657,-0.0051903576,-0.0039331643,0.0004685537,0.0033646603,0.00012305762,-0.0046427036,0.002888347,0.0020048707,-0.0036277985,0.0015293254,-0.0015176509,-0.0027040732,-0.0030627386,0.00044816986,0.0008425291,-0.0006783225,0.0029381088,-0.0014571226,6.7130946e-05,-0.00497076,-0.0018149582,-0.0004016801,0.0019021684,0.0033864346,-0.004098482,-0.0045246733,0.0024206378,0.00046889717,0.0012751654,-0.0019438446,0.0025512003,-0.0011660691,0.0023667926,-0.0006022034,-0.0036187219,-0.0028408545,-0.004004891,-0.0005320608,-0.0029385646,0.0011527088,0.00032858513,0.00046193416,-0.0047983993,0.00089813623,0.0025991271,0.003827607
http://www.ncbi.nlm.nih.gov/gene/113523636,-0.0075041857,-0.0033243143,-0.007973325,-0.0035672847,0.00876544,0.00480407,0.0014312473,-0.0043822504,-0.0017246533,0.00249612,-0.0025617802,-0.003424355,0.0009940177,-0.0029556393,-0.0010854426,0.0032106114,0.002045083,-0.00010400464,-0.0022583532,-0.0009752403,-0.0019000294,-0.0005868706,-0.0011836436,0.005621293,-0.00010393569,0.0010476917,-0.0029560653,-0.0031715455,0.006377535,0.0027559698,-0.006201139,-0.00022430766,-0.0020820284,-0.0013490723,-0.00814728,-0.0002900554,-0.0014815703,0.0020123397,0.003907345,0.0062668063,0.0029906607,0.0017954689,0.003857639,-0.004204728,0.00049442897,-0.0019624466,0.0056479624,0.0015942648,-0.006119101,-0.0022571618
http://purl.obolibrary.org/obo/MONDO_0009455,0.023146488,0.008773187,0.023753777,0.01106802,-0.029254952,-0.01547129,-0.0029663478,0.010244893,0.0010452807,-0.012113104,0.014560031,0.010833479,-0.011032347,0.013250048,-0.0024284995,-0.0050550546,-0.013400648,0.0057033263,0.0042275214,-0.0033841198,0.008401603,0.0050346595,0.008050633,-0.018526552,0.0012152179,0.0004134283,0.004650518,0.010670829,-0.02165007,-0.01158085,0.011081411,-0.0012463508,0.0024929938,-0.0015206351,0.020835236,0.00045176363,0.0033402613,-0.006960691,-0.012782366,-0.013722544,-0.014062188,-0.007120889,-0.02030861,0.007914205,-0.0008478447,0.001146281,-0.016268041,-0.0034361589,0.016997902,0.01453266
https://www.mirbase.org/mature/MIMAT0000415,0.026308315,0.033116076,0.0062170574,-0.054915782,-0.09037925,-0.038515933,-0.05282456,-0.0068385713,-0.08318505,-0.032670654,-0.036310542,-0.034101818,-0.025431162,-0.0054339175,-0.02768179,-0.0012655912,0.014438012,0.045389075,0.0017187714,-0.07012275,-0.015560427,0.03629943,-0.016718872,-0.03373646,-0.10168774,-0.040522847,-0.015746195,-0.008103369,0.028286494,-0.006610365,0.005343932,-0.034055524,0.05272194,-0.0049345465,0.008533697,0.046680775,0.0463297,0.0086888,-0.0010358095,0.03774473,-0.042101387,-0.106486924,-0.061321747,0.031839497,0.01959222,0.038290236,-0.06212158,-0.024997773,0.0575754,-0.039861567
http://purl.obolibrary.org/obo/MONDO_0018433,0.042566855,0.0153751625,0.037693553,0.0138074905,-0.046172895,-0.026667569,-0.0049514314,0.02088365,0.0038810952,-0.022259189,0.022736713,0.017764129,-0.013675322,0.022035398,0.0009408092,-0.009815567,-0.018795403,0.00853082,0.009518871,-0.0048965584,0.013085197,0.0036462357,0.014056835,-0.031148318,-0.0002753942,0.00042587778,0.01256418,0.02002094,-0.0336991,-0.021816345,0.022216694,-0.0050195516,0.005414091,-0.00615125,0.03430378,0.0019580505,0.0061106044,-0.010543604,-0.01977158,-0.021464976,-0.019011209,-0.00747797,-0.0333748,0.013995335,-0.0014841509,0.0037080017,-0.027421039,-0.007436267,0.02947878,0.022734178
http://purl.obolibrary.org/obo/MONDO_0003199,0.0721821,0.023544287,0.06603803,0.025195388,-0.075830996,-0.050106104,-0.0057425597,0.032636262,0.0074573173,-0.040095907,0.0425747,0.029460605,-0.025190106,0.036722783,-0.0018914291,-0.020579724,-0.03573648,0.016430894,0.015890965,-0.013249748,0.02385938,0.009885918,0.023817517,-0.04926098,0.002407135,-0.0009429758,0.019871822,0.033670254,-0.06157825,-0.038953576,0.03524877,-0.0075472104,0.008047616,-0.007377442,0.0582796,0.0017433227,0.01175749,-0.013209769,-0.035652637,-0.034977015,-0.03531018,-0.014575836,-0.053924546,0.024568204,-0.0019166323,0.0024735085,-0.05131004,-0.009185624,0.05013352,0.03671176
http://purl.obolibrary.org/obo/MONDO_0014958,0.09583159,0.031440407,0.08889598,0.03431885,-0.101321235,-0.06368459,-0.010854078,0.042795032,0.01102782,-0.050125577,0.053551394,0.04308827,-0.0337356,0.048726615,-0.003457453,-0.028079111,-0.04506303,0.019372014,0.019573612,-0.014624708,0.034577254,0.012279943,0.033407554,-0.06838515,0.0030890333,-0.0038858198,0.02414426,0.04646106,-0.083566174,-0.04915649,0.051212624,-0.009811016,0.011090111,-0.010537167,0.07945317,0.00084275095,0.015982756,-0.019521844,-0.047029313,-0.045222383,-0.047133133,-0.01835897,-0.072655775,0.030988922,-0.00091007963,0.006496521,-0.06666861,-0.011893702,0.06774238,0.045147
http://purl.obolibrary.org/obo/MONDO_0020247,0.06192706,0.019291423,0.058197845,0.023263464,-0.06721086,-0.042896643,-0.007555854,0.028578335,0.00671958,-0.0368753,0.036724072,0.029323416,-0.022163032,0.031372547,0.00027701145,-0.017293807,-0.031173237,0.012977313,0.014841164,-0.011224287,0.021235615,0.008563371,0.023097,-0.04407673,0.0022166132,-0.0013218742,0.017572867,0.028664624,-0.055468578,-0.03385778,0.0331854,-0.008911321,0.008950894,-0.008152131,0.054985054,-0.0013720944,0.010687586,-0.012952242,-0.032452215,-0.03181042,-0.033674423,-0.013885046,-0.049338408,0.020905243,0.0005023774,0.0047327993,-0.043780696,-0.0077907857,0.045957524,0.032840017
http://purl.obolibrary.org/obo/MONDO_0008693,0.057042982,0.01972482,0.05382891,0.019573366,-0.060070682,-0.040758856,-0.005571894,0.026879465,0.007311376,-0.03174707,0.030044714,0.024156325,-0.01882969,0.028432263,-0.0030917954,-0.01699133,-0.026565764,0.010429769,0.014354806,-0.007583421,0.018257035,0.006518134,0.018918445,-0.03962148,0.0026018976,-0.0034546845,0.016460365,0.027658315,-0.050653268,-0.029924558,0.030469382,-0.006587665,0.007873417,-0.006651459,0.04903262,0.0024245067,0.010998638,-0.009943678,-0.030746745,-0.028681407,-0.028564444,-0.013009611,-0.043745663,0.018702546,-0.00095646986,0.0026661311,-0.041861128,-0.0076413746,0.039392535,0.027581854
http://purl.obolibrary.org/obo/MONDO_0019716,0.07454461,0.024698325,0.07135525,0.026980111,-0.08206061,-0.05182097,-0.008202616,0.035441276,0.005591728,-0.04404001,0.04320385,0.03462366,-0.027260715,0.04060072,-0.0010250461,-0.021446194,-0.03827727,0.01667077,0.018353177,-0.011360731,0.027947132,0.008555111,0.027170092,-0.055514354,-7.614618e-05,-0.0039413464,0.021402923,0.039157048,-0.06617073,-0.04313542,0.03860931,-0.008200113,0.009294616,-0.00832842,0.06605657,-0.000867967,0.012304866,-0.016378079,-0.0390912,-0.038296983,-0.039116025,-0.016343597,-0.058847796,0.025679909,-0.0010585627,0.0029476476,-0.052825376,-0.011702596,0.056528512,0.037264116
http://purl.obolibrary.org/obo/MONDO_0012108,0.062284216,0.018786177,0.056977198,0.021638513,-0.067093186,-0.042899687,-0.00832256,0.027680157,0.0081272395,-0.035780426,0.034098595,0.027736869,-0.022472804,0.029303165,-0.0006236694,-0.01778584,-0.03128314,0.014649545,0.012003975,-0.007834885,0.022031471,0.008834455,0.020886555,-0.044886224,0.0031043915,-0.0033940887,0.017378686,0.027883274,-0.054436747,-0.033371117,0.033726715,-0.0053842734,0.008454721,-0.0076195067,0.053047437,-0.00069352315,0.010533504,-0.014520402,-0.031997435,-0.030603448,-0.030260453,-0.011031774,-0.047236517,0.02202912,-0.0007948607,0.004019141,-0.04290342,-0.009292091,0.043507442,0.030854927
http://purl.obolibrary.org/obo/MONDO_0013007,0.065671764,0.021112025,0.06549739,0.024744889,-0.07249285,-0.044464342,-0.00629516,0.029543625,0.0057819285,-0.036224328,0.03905929,0.031637795,-0.022550942,0.03283531,8.46247e-05,-0.020595782,-0.033937745,0.012374439,0.015781933,-0.010776446,0.022227634,0.008234186,0.024393553,-0.046879966,0.0035856357,-0.0016524377,0.015740788,0.034066886,-0.05609384,-0.03765378,0.0343484,-0.008066825,0.006718754,-0.0063980697,0.056780457,0.00090848195,0.010505056,-0.014053908,-0.033491906,-0.032627642,-0.033105467,-0.014836544,-0.050892618,0.022513578,-0.00037327898,0.0029259163,-0.04521638,-0.009009514,0.04649676,0.03435163
http://purl.obolibrary.org/obo/MONDO_0004415,0.027237872,0.007895749,0.024808,0.011087217,-0.029271347,-0.021138094,-0.0014630074,0.015226592,0.001591299,-0.015477139,0.015200954,0.013300415,-0.010036938,0.01288718,-0.00045999332,-0.007838621,-0.015732268,0.0046840613,0.0057114,-0.0064323978,0.00992604,0.001711141,0.009616958,-0.019035924,-0.0007792266,-0.0013164321,0.006338826,0.0117070675,-0.026438825,-0.015191791,0.015259452,-0.001935397,0.002214983,-0.0031455809,0.023263635,0.0010271692,0.006004933,-0.005971076,-0.014101987,-0.014863689,-0.0143,-0.007708178,-0.02330154,0.007892865,-0.000814344,0.0011866187,-0.019499138,-0.0037890954,0.019424155,0.012858383
http://purl.obolibrary.org/obo/MONDO_0000307,0.049971603,0.015782304,0.043856025,0.018063078,-0.05236028,-0.03186941,-0.003503442,0.024497615,0.0060625966,-0.025768515,0.026495047,0.02033601,-0.017209934,0.022347787,-0.001351536,-0.013728384,-0.021979017,0.011866159,0.010143834,-0.009104826,0.015874702,0.006551432,0.017710052,-0.03360579,0.0012817401,-0.0012894928,0.013177586,0.024559055,-0.04217366,-0.025244512,0.025717309,-0.007978366,0.0055458765,-0.003939178,0.04022488,-0.0011495708,0.007339956,-0.011433896,-0.027258389,-0.02247502,-0.02596806,-0.009170162,-0.03902354,0.014606539,-0.0015478022,0.0031213828,-0.034780134,-0.0058668177,0.034404088,0.024146225
http://purl.obolibrary.org/obo/MONDO_0859144,0.018281154,0.0054748943,0.018688632,0.0078509515,-0.02015717,-0.012335978,-0.00076456595,0.009711278,0.0027965943,-0.01027308,0.011062396,0.009242654,-0.0074024433,0.011774048,-0.0011343384,-0.0069454815,-0.010995218,0.0034308063,0.0058067637,-0.003763407,0.005939966,0.0038687538,0.005340809,-0.014665683,0.00034490792,-0.00021070143,0.0039409124,0.010887235,-0.015612268,-0.008515377,0.011157199,-0.0006957973,0.0019852992,-0.0018743611,0.014506026,0.0015420817,0.0018358289,-0.00475896,-0.008623562,-0.010595354,-0.009614189,-0.003948507,-0.015774736,0.0060012885,0.00076755555,0.002620374,-0.0119969575,-0.0009951296,0.012770587,0.011726114
